digraph Tree {
node [shape=box] ;
0 [label="X[5] <= 6.941\nmse = 95.952\nsamples = 339\nvalue = 23.093"] ;
1 [label="X[12] <= 14.445\nmse = 44.863\nsamples = 280\nvalue = 20.028"] ;
0 -> 1 [labeldistance=2.5, labelangle=45, headlabel="True"] ;
2 [label="X[7] <= 1.474\nmse = 30.104\nsamples = 168\nvalue = 23.54"] ;
1 -> 2 ;
3 [label="X[12] <= 10.83\nmse = 78.146\nsamples = 5\nvalue = 45.58"] ;
2 -> 3 ;
4 [label="mse = 0.0\nsamples = 4\nvalue = 50.0"] ;
3 -> 4 ;
5 [label="mse = -0.0\nsamples = 1\nvalue = 27.9"] ;
3 -> 5 ;
6 [label="X[5] <= 6.544\nmse = 13.273\nsamples = 163\nvalue = 22.864"] ;
2 -> 6 ;
7 [label="X[12] <= 7.76\nmse = 5.924\nsamples = 127\nvalue = 21.573"] ;
6 -> 7 ;
8 [label="X[2] <= 5.48\nmse = 2.688\nsamples = 30\nvalue = 23.857"] ;
7 -> 8 ;
9 [label="X[0] <= 0.041\nmse = 1.145\nsamples = 12\nvalue = 22.775"] ;
8 -> 9 ;
10 [label="X[1] <= 52.5\nmse = 0.282\nsamples = 3\nvalue = 24.133"] ;
9 -> 10 ;
11 [label="mse = 0.0\nsamples = 1\nvalue = 24.8"] ;
10 -> 11 ;
12 [label="X[11] <= 395.335\nmse = 0.09\nsamples = 2\nvalue = 23.8"] ;
10 -> 12 ;
13 [label="mse = 0.0\nsamples = 1\nvalue = 24.1"] ;
12 -> 13 ;
14 [label="mse = -0.0\nsamples = 1\nvalue = 23.5"] ;
12 -> 14 ;
15 [label="X[7] <= 9.903\nmse = 0.613\nsamples = 9\nvalue = 22.322"] ;
9 -> 15 ;
16 [label="X[6] <= 12.5\nmse = 0.272\nsamples = 8\nvalue = 22.538"] ;
15 -> 16 ;
17 [label="mse = 0.0\nsamples = 1\nvalue = 23.7"] ;
16 -> 17 ;
18 [label="X[2] <= 3.44\nmse = 0.091\nsamples = 7\nvalue = 22.371"] ;
16 -> 18 ;
19 [label="X[5] <= 6.417\nmse = 0.029\nsamples = 3\nvalue = 22.667"] ;
18 -> 19 ;
20 [label="X[1] <= 35.0\nmse = 0.002\nsamples = 2\nvalue = 22.55"] ;
19 -> 20 ;
21 [label="mse = 0.0\nsamples = 1\nvalue = 22.6"] ;
20 -> 21 ;
22 [label="mse = -0.0\nsamples = 1\nvalue = 22.5"] ;
20 -> 22 ;
23 [label="mse = 0.0\nsamples = 1\nvalue = 22.9"] ;
19 -> 23 ;
24 [label="X[4] <= 0.398\nmse = 0.023\nsamples = 4\nvalue = 22.15"] ;
18 -> 24 ;
25 [label="mse = 0.0\nsamples = 1\nvalue = 21.9"] ;
24 -> 25 ;
26 [label="X[12] <= 7.165\nmse = 0.002\nsamples = 3\nvalue = 22.233"] ;
24 -> 26 ;
27 [label="mse = -0.0\nsamples = 2\nvalue = 22.2"] ;
26 -> 27 ;
28 [label="mse = 0.0\nsamples = 1\nvalue = 22.3"] ;
26 -> 28 ;
29 [label="mse = -0.0\nsamples = 1\nvalue = 20.6"] ;
15 -> 29 ;
30 [label="X[1] <= 34.0\nmse = 2.417\nsamples = 18\nvalue = 24.578"] ;
8 -> 30 ;
31 [label="X[5] <= 6.146\nmse = 1.286\nsamples = 17\nvalue = 24.312"] ;
30 -> 31 ;
32 [label="X[10] <= 18.8\nmse = 0.176\nsamples = 3\nvalue = 22.667"] ;
31 -> 32 ;
33 [label="mse = 0.0\nsamples = 1\nvalue = 22.1"] ;
32 -> 33 ;
34 [label="X[11] <= 388.88\nmse = 0.023\nsamples = 2\nvalue = 22.95"] ;
32 -> 34 ;
35 [label="mse = 0.0\nsamples = 1\nvalue = 23.1"] ;
34 -> 35 ;
36 [label="mse = -0.0\nsamples = 1\nvalue = 22.8"] ;
34 -> 36 ;
37 [label="X[3] <= 0.5\nmse = 0.819\nsamples = 14\nvalue = 24.664"] ;
31 -> 37 ;
38 [label="X[6] <= 47.2\nmse = 0.431\nsamples = 13\nvalue = 24.485"] ;
37 -> 38 ;
39 [label="X[9] <= 296.0\nmse = 0.157\nsamples = 10\nvalue = 24.75"] ;
38 -> 39 ;
40 [label="X[12] <= 5.18\nmse = 0.053\nsamples = 7\nvalue = 24.971"] ;
39 -> 40 ;
41 [label="mse = 0.0\nsamples = 1\nvalue = 24.6"] ;
40 -> 41 ;
42 [label="X[12] <= 7.015\nmse = 0.036\nsamples = 6\nvalue = 25.033"] ;
40 -> 42 ;
43 [label="X[8] <= 3.5\nmse = 0.016\nsamples = 5\nvalue = 25.1"] ;
42 -> 43 ;
44 [label="X[10] <= 18.25\nmse = 0.003\nsamples = 2\nvalue = 25.25"] ;
43 -> 44 ;
45 [label="mse = 0.0\nsamples = 1\nvalue = 25.3"] ;
44 -> 45 ;
46 [label="mse = 0.0\nsamples = 1\nvalue = 25.2"] ;
44 -> 46 ;
47 [label="mse = 0.0\nsamples = 3\nvalue = 25.0"] ;
43 -> 47 ;
48 [label="mse = 0.0\nsamples = 1\nvalue = 24.7"] ;
42 -> 48 ;
49 [label="X[8] <= 6.0\nmse = 0.016\nsamples = 3\nvalue = 24.233"] ;
39 -> 49 ;
50 [label="X[11] <= 389.325\nmse = 0.003\nsamples = 2\nvalue = 24.15"] ;
49 -> 50 ;
51 [label="mse = 0.0\nsamples = 1\nvalue = 24.2"] ;
50 -> 51 ;
52 [label="mse = 0.0\nsamples = 1\nvalue = 24.1"] ;
50 -> 52 ;
53 [label="mse = 0.0\nsamples = 1\nvalue = 24.4"] ;
49 -> 53 ;
54 [label="X[12] <= 7.56\nmse = 0.327\nsamples = 3\nvalue = 23.6"] ;
38 -> 54 ;
55 [label="X[11] <= 380.605\nmse = 0.01\nsamples = 2\nvalue = 23.2"] ;
54 -> 55 ;
56 [label="mse = 0.0\nsamples = 1\nvalue = 23.3"] ;
55 -> 56 ;
57 [label="mse = -0.0\nsamples = 1\nvalue = 23.1"] ;
55 -> 57 ;
58 [label="mse = 0.0\nsamples = 1\nvalue = 24.4"] ;
54 -> 58 ;
59 [label="mse = 0.0\nsamples = 1\nvalue = 27.0"] ;
37 -> 59 ;
60 [label="mse = -0.0\nsamples = 1\nvalue = 29.1"] ;
30 -> 60 ;
61 [label="X[10] <= 17.85\nmse = 4.813\nsamples = 97\nvalue = 20.867"] ;
7 -> 61 ;
62 [label="X[9] <= 412.5\nmse = 5.191\nsamples = 29\nvalue = 21.966"] ;
61 -> 62 ;
63 [label="X[7] <= 6.086\nmse = 3.571\nsamples = 25\nvalue = 22.516"] ;
62 -> 63 ;
64 [label="X[4] <= 0.759\nmse = 2.631\nsamples = 17\nvalue = 23.259"] ;
63 -> 64 ;
65 [label="X[11] <= 391.59\nmse = 1.906\nsamples = 16\nvalue = 23.488"] ;
64 -> 65 ;
66 [label="X[0] <= 0.212\nmse = 2.046\nsamples = 6\nvalue = 24.733"] ;
65 -> 66 ;
67 [label="mse = 0.0\nsamples = 2\nvalue = 26.4"] ;
66 -> 67 ;
68 [label="X[5] <= 6.251\nmse = 0.985\nsamples = 4\nvalue = 23.9"] ;
66 -> 68 ;
69 [label="X[10] <= 16.05\nmse = 0.176\nsamples = 3\nvalue = 24.433"] ;
68 -> 69 ;
70 [label="mse = 0.0\nsamples = 1\nvalue = 25.0"] ;
69 -> 70 ;
71 [label="X[0] <= 0.434\nmse = 0.023\nsamples = 2\nvalue = 24.15"] ;
69 -> 71 ;
72 [label="mse = 0.0\nsamples = 1\nvalue = 24.0"] ;
71 -> 72 ;
73 [label="mse = 0.0\nsamples = 1\nvalue = 24.3"] ;
71 -> 73 ;
74 [label="mse = -0.0\nsamples = 1\nvalue = 22.3"] ;
68 -> 74 ;
75 [label="X[6] <= 30.35\nmse = 0.332\nsamples = 10\nvalue = 22.74"] ;
65 -> 75 ;
76 [label="mse = 0.0\nsamples = 1\nvalue = 23.9"] ;
75 -> 76 ;
77 [label="X[4] <= 0.499\nmse = 0.203\nsamples = 9\nvalue = 22.611"] ;
75 -> 77 ;
78 [label="X[5] <= 6.411\nmse = 0.14\nsamples = 3\nvalue = 22.1"] ;
77 -> 78 ;
79 [label="X[12] <= 9.3\nmse = 0.023\nsamples = 2\nvalue = 21.85"] ;
78 -> 79 ;
80 [label="mse = 0.0\nsamples = 1\nvalue = 22.0"] ;
79 -> 80 ;
81 [label="mse = -0.0\nsamples = 1\nvalue = 21.7"] ;
79 -> 81 ;
82 [label="mse = 0.0\nsamples = 1\nvalue = 22.6"] ;
78 -> 82 ;
83 [label="X[5] <= 5.936\nmse = 0.039\nsamples = 6\nvalue = 22.867"] ;
77 -> 83 ;
84 [label="X[11] <= 392.815\nmse = 0.007\nsamples = 3\nvalue = 22.7"] ;
83 -> 84 ;
85 [label="mse = 0.0\nsamples = 1\nvalue = 22.8"] ;
84 -> 85 ;
86 [label="X[0] <= 1.163\nmse = 0.003\nsamples = 2\nvalue = 22.65"] ;
84 -> 86 ;
87 [label="mse = 0.0\nsamples = 1\nvalue = 22.6"] ;
86 -> 87 ;
88 [label="mse = 0.0\nsamples = 1\nvalue = 22.7"] ;
86 -> 88 ;
89 [label="X[10] <= 16.5\nmse = 0.016\nsamples = 3\nvalue = 23.033"] ;
83 -> 89 ;
90 [label="X[7] <= 4.462\nmse = 0.003\nsamples = 2\nvalue = 22.95"] ;
89 -> 90 ;
91 [label="mse = 0.0\nsamples = 1\nvalue = 23.0"] ;
90 -> 91 ;
92 [label="mse = -0.0\nsamples = 1\nvalue = 22.9"] ;
90 -> 92 ;
93 [label="mse = -0.0\nsamples = 1\nvalue = 23.2"] ;
89 -> 93 ;
94 [label="mse = -0.0\nsamples = 1\nvalue = 19.6"] ;
64 -> 94 ;
95 [label="X[7] <= 6.728\nmse = 1.905\nsamples = 8\nvalue = 20.938"] ;
63 -> 95 ;
96 [label="mse = 0.0\nsamples = 2\nvalue = 19.4"] ;
95 -> 96 ;
97 [label="X[12] <= 8.84\nmse = 1.489\nsamples = 6\nvalue = 21.45"] ;
95 -> 97 ;
98 [label="X[4] <= 0.414\nmse = 0.49\nsamples = 2\nvalue = 22.7"] ;
97 -> 98 ;
99 [label="mse = 0.0\nsamples = 1\nvalue = 22.0"] ;
98 -> 99 ;
100 [label="mse = 0.0\nsamples = 1\nvalue = 23.4"] ;
98 -> 100 ;
101 [label="X[0] <= 0.096\nmse = 0.817\nsamples = 4\nvalue = 20.825"] ;
97 -> 101 ;
102 [label="X[0] <= 0.066\nmse = 0.249\nsamples = 3\nvalue = 20.367"] ;
101 -> 102 ;
103 [label="X[4] <= 0.416\nmse = 0.04\nsamples = 2\nvalue = 20.7"] ;
102 -> 103 ;
104 [label="mse = 0.0\nsamples = 1\nvalue = 20.9"] ;
103 -> 104 ;
105 [label="mse = 0.0\nsamples = 1\nvalue = 20.5"] ;
103 -> 105 ;
106 [label="mse = -0.0\nsamples = 1\nvalue = 19.7"] ;
102 -> 106 ;
107 [label="mse = -0.0\nsamples = 1\nvalue = 22.2"] ;
101 -> 107 ;
108 [label="X[2] <= 2.565\nmse = 1.582\nsamples = 4\nvalue = 18.525"] ;
62 -> 108 ;
109 [label="mse = 0.0\nsamples = 1\nvalue = 16.5"] ;
108 -> 109 ;
110 [label="X[5] <= 6.199\nmse = 0.287\nsamples = 3\nvalue = 19.2"] ;
108 -> 110 ;
111 [label="X[11] <= 380.035\nmse = 0.063\nsamples = 2\nvalue = 19.55"] ;
110 -> 111 ;
112 [label="mse = 0.0\nsamples = 1\nvalue = 19.8"] ;
111 -> 112 ;
113 [label="mse = -0.0\nsamples = 1\nvalue = 19.3"] ;
111 -> 113 ;
114 [label="mse = 0.0\nsamples = 1\nvalue = 18.5"] ;
110 -> 114 ;
115 [label="X[6] <= 99.45\nmse = 3.918\nsamples = 68\nvalue = 20.399"] ;
61 -> 115 ;
116 [label="X[5] <= 5.845\nmse = 3.45\nsamples = 67\nvalue = 20.487"] ;
115 -> 116 ;
117 [label="X[9] <= 368.0\nmse = 2.883\nsamples = 18\nvalue = 19.289"] ;
116 -> 117 ;
118 [label="X[2] <= 9.02\nmse = 1.869\nsamples = 12\nvalue = 18.558"] ;
117 -> 118 ;
119 [label="X[4] <= 0.431\nmse = 0.85\nsamples = 10\nvalue = 19.04"] ;
118 -> 119 ;
120 [label="X[2] <= 3.99\nmse = 0.16\nsamples = 2\nvalue = 17.8"] ;
119 -> 120 ;
121 [label="mse = 0.0\nsamples = 1\nvalue = 18.2"] ;
120 -> 121 ;
122 [label="mse = 0.0\nsamples = 1\nvalue = 17.4"] ;
120 -> 122 ;
123 [label="X[6] <= 63.8\nmse = 0.542\nsamples = 8\nvalue = 19.35"] ;
119 -> 123 ;
124 [label="X[12] <= 10.81\nmse = 0.094\nsamples = 5\nvalue = 19.88"] ;
123 -> 124 ;
125 [label="X[4] <= 0.493\nmse = 0.09\nsamples = 2\nvalue = 19.6"] ;
124 -> 125 ;
126 [label="mse = 0.0\nsamples = 1\nvalue = 19.3"] ;
125 -> 126 ;
127 [label="mse = -0.0\nsamples = 1\nvalue = 19.9"] ;
125 -> 127 ;
128 [label="X[0] <= 0.496\nmse = 0.009\nsamples = 3\nvalue = 20.067"] ;
124 -> 128 ;
129 [label="mse = 0.0\nsamples = 2\nvalue = 20.0"] ;
128 -> 129 ;
130 [label="mse = -0.0\nsamples = 1\nvalue = 20.2"] ;
128 -> 130 ;
131 [label="X[11] <= 391.04\nmse = 0.042\nsamples = 3\nvalue = 18.467"] ;
123 -> 131 ;
132 [label="mse = 0.0\nsamples = 1\nvalue = 18.2"] ;
131 -> 132 ;
133 [label="X[5] <= 5.725\nmse = 0.01\nsamples = 2\nvalue = 18.6"] ;
131 -> 133 ;
134 [label="mse = 0.0\nsamples = 1\nvalue = 18.5"] ;
133 -> 134 ;
135 [label="mse = -0.0\nsamples = 1\nvalue = 18.7"] ;
133 -> 135 ;
136 [label="X[6] <= 57.75\nmse = 0.003\nsamples = 2\nvalue = 16.15"] ;
118 -> 136 ;
137 [label="mse = 0.0\nsamples = 1\nvalue = 16.1"] ;
136 -> 137 ;
138 [label="mse = 0.0\nsamples = 1\nvalue = 16.2"] ;
136 -> 138 ;
139 [label="X[12] <= 14.05\nmse = 1.709\nsamples = 6\nvalue = 20.75"] ;
117 -> 139 ;
140 [label="X[12] <= 10.305\nmse = 0.202\nsamples = 4\nvalue = 21.575"] ;
139 -> 140 ;
141 [label="mse = 0.0\nsamples = 1\nvalue = 20.8"] ;
140 -> 141 ;
142 [label="X[12] <= 13.005\nmse = 0.002\nsamples = 3\nvalue = 21.833"] ;
140 -> 142 ;
143 [label="mse = 0.0\nsamples = 2\nvalue = 21.8"] ;
142 -> 143 ;
144 [label="mse = -0.0\nsamples = 1\nvalue = 21.9"] ;
142 -> 144 ;
145 [label="X[7] <= 2.98\nmse = 0.64\nsamples = 2\nvalue = 19.1"] ;
139 -> 145 ;
146 [label="mse = 0.0\nsamples = 1\nvalue = 18.3"] ;
145 -> 146 ;
147 [label="mse = -0.0\nsamples = 1\nvalue = 19.9"] ;
145 -> 147 ;
148 [label="X[6] <= 57.65\nmse = 2.937\nsamples = 49\nvalue = 20.927"] ;
116 -> 148 ;
149 [label="X[0] <= 0.178\nmse = 2.825\nsamples = 25\nvalue = 21.56"] ;
148 -> 149 ;
150 [label="X[7] <= 6.715\nmse = 1.611\nsamples = 17\nvalue = 21.018"] ;
149 -> 150 ;
151 [label="X[2] <= 4.84\nmse = 1.22\nsamples = 14\nvalue = 21.357"] ;
150 -> 151 ;
152 [label="X[5] <= 6.255\nmse = 0.549\nsamples = 3\nvalue = 22.867"] ;
151 -> 152 ;
153 [label="X[11] <= 395.57\nmse = 0.023\nsamples = 2\nvalue = 22.35"] ;
152 -> 153 ;
154 [label="mse = 0.0\nsamples = 1\nvalue = 22.2"] ;
153 -> 154 ;
155 [label="mse = -0.0\nsamples = 1\nvalue = 22.5"] ;
153 -> 155 ;
156 [label="mse = 0.0\nsamples = 1\nvalue = 23.9"] ;
152 -> 156 ;
157 [label="X[9] <= 228.5\nmse = 0.612\nsamples = 11\nvalue = 20.945"] ;
151 -> 157 ;
158 [label="X[11] <= 396.52\nmse = 0.64\nsamples = 2\nvalue = 19.8"] ;
157 -> 158 ;
159 [label="mse = 0.0\nsamples = 1\nvalue = 20.6"] ;
158 -> 159 ;
160 [label="mse = 0.0\nsamples = 1\nvalue = 19.0"] ;
158 -> 160 ;
161 [label="X[6] <= 27.2\nmse = 0.249\nsamples = 9\nvalue = 21.2"] ;
157 -> 161 ;
162 [label="X[9] <= 325.0\nmse = 0.022\nsamples = 2\nvalue = 21.85"] ;
161 -> 162 ;
163 [label="mse = 0.0\nsamples = 1\nvalue = 21.7"] ;
162 -> 163 ;
164 [label="mse = -0.0\nsamples = 1\nvalue = 22.0"] ;
162 -> 164 ;
165 [label="X[4] <= 0.509\nmse = 0.158\nsamples = 7\nvalue = 21.014"] ;
161 -> 165 ;
166 [label="X[6] <= 38.3\nmse = 0.093\nsamples = 6\nvalue = 20.9"] ;
165 -> 166 ;
167 [label="X[9] <= 371.5\nmse = 0.09\nsamples = 2\nvalue = 20.6"] ;
166 -> 167 ;
168 [label="mse = 0.0\nsamples = 1\nvalue = 20.9"] ;
167 -> 168 ;
169 [label="mse = -0.0\nsamples = 1\nvalue = 20.3"] ;
167 -> 169 ;
170 [label="X[7] <= 4.552\nmse = 0.028\nsamples = 4\nvalue = 21.05"] ;
166 -> 170 ;
171 [label="X[2] <= 9.395\nmse = 0.01\nsamples = 2\nvalue = 20.9"] ;
170 -> 171 ;
172 [label="mse = 0.0\nsamples = 1\nvalue = 21.0"] ;
171 -> 172 ;
173 [label="mse = 0.0\nsamples = 1\nvalue = 20.8"] ;
171 -> 173 ;
174 [label="mse = -0.0\nsamples = 2\nvalue = 21.2"] ;
170 -> 174 ;
175 [label="mse = -0.0\nsamples = 1\nvalue = 21.7"] ;
165 -> 175 ;
176 [label="X[5] <= 5.905\nmse = 0.389\nsamples = 3\nvalue = 19.433"] ;
150 -> 176 ;
177 [label="mse = 0.0\nsamples = 1\nvalue = 18.6"] ;
176 -> 177 ;
178 [label="X[9] <= 262.5\nmse = 0.062\nsamples = 2\nvalue = 19.85"] ;
176 -> 178 ;
179 [label="mse = 0.0\nsamples = 1\nvalue = 20.1"] ;
178 -> 179 ;
180 [label="mse = -0.0\nsamples = 1\nvalue = 19.6"] ;
178 -> 180 ;
181 [label="X[11] <= 389.415\nmse = 3.451\nsamples = 8\nvalue = 22.712"] ;
149 -> 181 ;
182 [label="X[7] <= 3.858\nmse = 0.077\nsamples = 4\nvalue = 20.875"] ;
181 -> 182 ;
183 [label="mse = 0.0\nsamples = 2\nvalue = 20.6"] ;
182 -> 183 ;
184 [label="X[5] <= 6.084\nmse = 0.003\nsamples = 2\nvalue = 21.15"] ;
182 -> 184 ;
185 [label="mse = 0.0\nsamples = 1\nvalue = 21.1"] ;
184 -> 185 ;
186 [label="mse = 0.0\nsamples = 1\nvalue = 21.2"] ;
184 -> 186 ;
187 [label="X[0] <= 0.214\nmse = 0.073\nsamples = 4\nvalue = 24.55"] ;
181 -> 187 ;
188 [label="mse = 0.0\nsamples = 1\nvalue = 25.0"] ;
187 -> 188 ;
189 [label="X[0] <= 0.31\nmse = 0.007\nsamples = 3\nvalue = 24.4"] ;
187 -> 189 ;
190 [label="X[9] <= 334.0\nmse = 0.002\nsamples = 2\nvalue = 24.45"] ;
189 -> 190 ;
191 [label="mse = 0.0\nsamples = 1\nvalue = 24.4"] ;
190 -> 191 ;
192 [label="mse = 0.0\nsamples = 1\nvalue = 24.5"] ;
190 -> 192 ;
193 [label="mse = 0.0\nsamples = 1\nvalue = 24.3"] ;
189 -> 193 ;
194 [label="X[4] <= 0.741\nmse = 2.201\nsamples = 24\nvalue = 20.267"] ;
148 -> 194 ;
195 [label="X[7] <= 2.415\nmse = 1.837\nsamples = 22\nvalue = 20.05"] ;
194 -> 195 ;
196 [label="X[7] <= 2.228\nmse = 1.237\nsamples = 8\nvalue = 20.975"] ;
195 -> 196 ;
197 [label="X[2] <= 19.995\nmse = 0.612\nsamples = 4\nvalue = 20.25"] ;
196 -> 197 ;
198 [label="mse = 0.0\nsamples = 1\nvalue = 21.4"] ;
197 -> 198 ;
199 [label="X[6] <= 91.5\nmse = 0.229\nsamples = 3\nvalue = 19.867"] ;
197 -> 199 ;
200 [label="X[8] <= 3.0\nmse = 0.01\nsamples = 2\nvalue = 20.2"] ;
199 -> 200 ;
201 [label="mse = 0.0\nsamples = 1\nvalue = 20.3"] ;
200 -> 201 ;
202 [label="mse = -0.0\nsamples = 1\nvalue = 20.1"] ;
200 -> 202 ;
203 [label="mse = 0.0\nsamples = 1\nvalue = 19.2"] ;
199 -> 203 ;
204 [label="X[11] <= 393.025\nmse = 0.81\nsamples = 4\nvalue = 21.7"] ;
196 -> 204 ;
205 [label="X[9] <= 312.5\nmse = 0.25\nsamples = 2\nvalue = 22.5"] ;
204 -> 205 ;
206 [label="mse = 0.0\nsamples = 1\nvalue = 22.0"] ;
205 -> 206 ;
207 [label="mse = 0.0\nsamples = 1\nvalue = 23.0"] ;
205 -> 207 ;
208 [label="X[10] <= 20.1\nmse = 0.09\nsamples = 2\nvalue = 20.9"] ;
204 -> 208 ;
209 [label="mse = 0.0\nsamples = 1\nvalue = 21.2"] ;
208 -> 209 ;
210 [label="mse = 0.0\nsamples = 1\nvalue = 20.6"] ;
208 -> 210 ;
211 [label="X[12] <= 14.16\nmse = 1.412\nsamples = 14\nvalue = 19.521"] ;
195 -> 211 ;
212 [label="X[10] <= 19.65\nmse = 0.907\nsamples = 13\nvalue = 19.731"] ;
211 -> 212 ;
213 [label="X[8] <= 3.0\nmse = 0.175\nsamples = 4\nvalue = 20.7"] ;
212 -> 213 ;
214 [label="mse = 0.0\nsamples = 1\nvalue = 21.4"] ;
213 -> 214 ;
215 [label="X[12] <= 10.06\nmse = 0.016\nsamples = 3\nvalue = 20.467"] ;
213 -> 215 ;
216 [label="mse = 0.0\nsamples = 1\nvalue = 20.3"] ;
215 -> 216 ;
217 [label="X[9] <= 300.0\nmse = 0.002\nsamples = 2\nvalue = 20.55"] ;
215 -> 217 ;
218 [label="mse = 0.0\nsamples = 1\nvalue = 20.6"] ;
217 -> 218 ;
219 [label="mse = 0.0\nsamples = 1\nvalue = 20.5"] ;
217 -> 219 ;
220 [label="X[11] <= 390.315\nmse = 0.629\nsamples = 9\nvalue = 19.3"] ;
212 -> 220 ;
221 [label="X[6] <= 84.95\nmse = 0.027\nsamples = 3\nvalue = 18.4"] ;
220 -> 221 ;
222 [label="mse = 0.0\nsamples = 1\nvalue = 18.2"] ;
221 -> 222 ;
223 [label="X[11] <= 229.37\nmse = 0.01\nsamples = 2\nvalue = 18.5"] ;
221 -> 223 ;
224 [label="mse = 0.0\nsamples = 1\nvalue = 18.6"] ;
223 -> 224 ;
225 [label="mse = 0.0\nsamples = 1\nvalue = 18.4"] ;
223 -> 225 ;
226 [label="X[7] <= 4.76\nmse = 0.323\nsamples = 6\nvalue = 19.75"] ;
220 -> 226 ;
227 [label="X[12] <= 12.6\nmse = 0.122\nsamples = 5\nvalue = 19.96"] ;
226 -> 227 ;
228 [label="X[6] <= 75.85\nmse = 0.016\nsamples = 3\nvalue = 20.233"] ;
227 -> 228 ;
229 [label="mse = 0.0\nsamples = 1\nvalue = 20.4"] ;
228 -> 229 ;
230 [label="X[10] <= 20.55\nmse = 0.002\nsamples = 2\nvalue = 20.15"] ;
228 -> 230 ;
231 [label="mse = 0.0\nsamples = 1\nvalue = 20.2"] ;
230 -> 231 ;
232 [label="mse = 0.0\nsamples = 1\nvalue = 20.1"] ;
230 -> 232 ;
233 [label="X[11] <= 396.115\nmse = 0.002\nsamples = 2\nvalue = 19.55"] ;
227 -> 233 ;
234 [label="mse = 0.0\nsamples = 1\nvalue = 19.6"] ;
233 -> 234 ;
235 [label="mse = 0.0\nsamples = 1\nvalue = 19.5"] ;
233 -> 235 ;
236 [label="mse = -0.0\nsamples = 1\nvalue = 18.7"] ;
226 -> 236 ;
237 [label="mse = -0.0\nsamples = 1\nvalue = 16.8"] ;
211 -> 237 ;
238 [label="X[6] <= 82.35\nmse = 0.002\nsamples = 2\nvalue = 22.65"] ;
194 -> 238 ;
239 [label="mse = 0.0\nsamples = 1\nvalue = 22.6"] ;
238 -> 239 ;
240 [label="mse = 0.0\nsamples = 1\nvalue = 22.7"] ;
238 -> 240 ;
241 [label="mse = 0.0\nsamples = 1\nvalue = 14.5"] ;
115 -> 241 ;
242 [label="X[9] <= 269.0\nmse = 12.594\nsamples = 36\nvalue = 27.417"] ;
6 -> 242 ;
243 [label="X[11] <= 392.6\nmse = 6.238\nsamples = 11\nvalue = 30.818"] ;
242 -> 243 ;
244 [label="X[12] <= 4.67\nmse = 2.375\nsamples = 4\nvalue = 28.1"] ;
243 -> 244 ;
245 [label="X[5] <= 6.666\nmse = 0.25\nsamples = 2\nvalue = 29.6"] ;
244 -> 245 ;
246 [label="mse = 0.0\nsamples = 1\nvalue = 29.1"] ;
245 -> 246 ;
247 [label="mse = 0.0\nsamples = 1\nvalue = 30.1"] ;
245 -> 247 ;
248 [label="mse = -0.0\nsamples = 2\nvalue = 26.6"] ;
244 -> 248 ;
249 [label="X[10] <= 15.0\nmse = 1.811\nsamples = 7\nvalue = 32.371"] ;
243 -> 249 ;
250 [label="mse = 0.0\nsamples = 1\nvalue = 35.1"] ;
249 -> 250 ;
251 [label="X[1] <= 50.0\nmse = 0.665\nsamples = 6\nvalue = 31.917"] ;
249 -> 251 ;
252 [label="X[11] <= 395.175\nmse = 0.096\nsamples = 3\nvalue = 32.667"] ;
251 -> 252 ;
253 [label="mse = 0.0\nsamples = 1\nvalue = 33.1"] ;
252 -> 253 ;
254 [label="X[4] <= 0.468\nmse = 0.002\nsamples = 2\nvalue = 32.45"] ;
252 -> 254 ;
255 [label="mse = 0.0\nsamples = 1\nvalue = 32.4"] ;
254 -> 255 ;
256 [label="mse = -0.0\nsamples = 1\nvalue = 32.5"] ;
254 -> 256 ;
257 [label="X[11] <= 393.135\nmse = 0.109\nsamples = 3\nvalue = 31.167"] ;
251 -> 257 ;
258 [label="mse = 0.0\nsamples = 1\nvalue = 31.6"] ;
257 -> 258 ;
259 [label="X[1] <= 67.5\nmse = 0.023\nsamples = 2\nvalue = 30.95"] ;
257 -> 259 ;
260 [label="mse = 0.0\nsamples = 1\nvalue = 31.1"] ;
259 -> 260 ;
261 [label="mse = -0.0\nsamples = 1\nvalue = 30.8"] ;
259 -> 261 ;
262 [label="X[10] <= 18.15\nmse = 8.059\nsamples = 25\nvalue = 25.92"] ;
242 -> 262 ;
263 [label="X[7] <= 3.968\nmse = 6.692\nsamples = 12\nvalue = 27.667"] ;
262 -> 263 ;
264 [label="X[6] <= 49.45\nmse = 2.682\nsamples = 6\nvalue = 29.667"] ;
263 -> 264 ;
265 [label="X[11] <= 387.105\nmse = 0.062\nsamples = 2\nvalue = 31.75"] ;
264 -> 265 ;
266 [label="mse = 0.0\nsamples = 1\nvalue = 31.5"] ;
265 -> 266 ;
267 [label="mse = 0.0\nsamples = 1\nvalue = 32.0"] ;
265 -> 267 ;
268 [label="X[0] <= 0.068\nmse = 0.737\nsamples = 4\nvalue = 28.625"] ;
264 -> 268 ;
269 [label="mse = 0.0\nsamples = 1\nvalue = 29.9"] ;
268 -> 269 ;
270 [label="X[12] <= 9.81\nmse = 0.26\nsamples = 3\nvalue = 28.2"] ;
268 -> 270 ;
271 [label="X[5] <= 6.634\nmse = 0.023\nsamples = 2\nvalue = 28.55"] ;
270 -> 271 ;
272 [label="mse = 0.0\nsamples = 1\nvalue = 28.4"] ;
271 -> 272 ;
273 [label="mse = 0.0\nsamples = 1\nvalue = 28.7"] ;
271 -> 273 ;
274 [label="mse = 0.0\nsamples = 1\nvalue = 27.5"] ;
270 -> 274 ;
275 [label="X[2] <= 10.06\nmse = 2.702\nsamples = 6\nvalue = 25.667"] ;
263 -> 275 ;
276 [label="X[11] <= 393.92\nmse = 0.197\nsamples = 4\nvalue = 24.575"] ;
275 -> 276 ;
277 [label="X[6] <= 38.55\nmse = 0.06\nsamples = 3\nvalue = 24.8"] ;
276 -> 277 ;
278 [label="mse = 0.0\nsamples = 1\nvalue = 24.5"] ;
277 -> 278 ;
279 [label="X[7] <= 5.988\nmse = 0.022\nsamples = 2\nvalue = 24.95"] ;
277 -> 279 ;
280 [label="mse = 0.0\nsamples = 1\nvalue = 25.1"] ;
279 -> 280 ;
281 [label="mse = -0.0\nsamples = 1\nvalue = 24.8"] ;
279 -> 281 ;
282 [label="mse = -0.0\nsamples = 1\nvalue = 23.9"] ;
276 -> 282 ;
283 [label="X[5] <= 6.613\nmse = 0.563\nsamples = 2\nvalue = 27.85"] ;
275 -> 283 ;
284 [label="mse = 0.0\nsamples = 1\nvalue = 27.1"] ;
283 -> 284 ;
285 [label="mse = 0.0\nsamples = 1\nvalue = 28.6"] ;
283 -> 285 ;
286 [label="X[4] <= 0.526\nmse = 3.905\nsamples = 13\nvalue = 24.308"] ;
262 -> 286 ;
287 [label="X[5] <= 6.668\nmse = 1.894\nsamples = 7\nvalue = 25.757"] ;
286 -> 287 ;
288 [label="X[2] <= 3.275\nmse = 0.01\nsamples = 2\nvalue = 24.0"] ;
287 -> 288 ;
289 [label="mse = 0.0\nsamples = 1\nvalue = 24.1"] ;
288 -> 289 ;
290 [label="mse = 0.0\nsamples = 1\nvalue = 23.9"] ;
288 -> 290 ;
291 [label="X[12] <= 5.59\nmse = 0.918\nsamples = 5\nvalue = 26.46"] ;
287 -> 291 ;
292 [label="mse = 0.0\nsamples = 1\nvalue = 28.0"] ;
291 -> 292 ;
293 [label="X[9] <= 307.0\nmse = 0.407\nsamples = 4\nvalue = 26.075"] ;
291 -> 293 ;
294 [label="mse = 0.0\nsamples = 1\nvalue = 25.0"] ;
293 -> 294 ;
295 [label="X[8] <= 6.0\nmse = 0.029\nsamples = 3\nvalue = 26.433"] ;
293 -> 295 ;
296 [label="X[5] <= 6.86\nmse = 0.002\nsamples = 2\nvalue = 26.55"] ;
295 -> 296 ;
297 [label="mse = 0.0\nsamples = 1\nvalue = 26.5"] ;
296 -> 297 ;
298 [label="mse = -0.0\nsamples = 1\nvalue = 26.6"] ;
296 -> 298 ;
299 [label="mse = -0.0\nsamples = 1\nvalue = 26.2"] ;
295 -> 299 ;
300 [label="X[10] <= 20.6\nmse = 0.941\nsamples = 6\nvalue = 22.617"] ;
286 -> 300 ;
301 [label="X[12] <= 6.14\nmse = 0.202\nsamples = 3\nvalue = 23.433"] ;
300 -> 301 ;
302 [label="mse = 0.0\nsamples = 1\nvalue = 22.8"] ;
301 -> 302 ;
303 [label="X[0] <= 3.039\nmse = 0.003\nsamples = 2\nvalue = 23.75"] ;
301 -> 303 ;
304 [label="mse = 0.0\nsamples = 1\nvalue = 23.8"] ;
303 -> 304 ;
305 [label="mse = 0.0\nsamples = 1\nvalue = 23.7"] ;
303 -> 305 ;
306 [label="X[4] <= 0.556\nmse = 0.347\nsamples = 3\nvalue = 21.8"] ;
300 -> 306 ;
307 [label="mse = 0.0\nsamples = 1\nvalue = 21.0"] ;
306 -> 307 ;
308 [label="X[12] <= 8.075\nmse = 0.04\nsamples = 2\nvalue = 22.2"] ;
306 -> 308 ;
309 [label="mse = 0.0\nsamples = 1\nvalue = 22.0"] ;
308 -> 309 ;
310 [label="mse = 0.0\nsamples = 1\nvalue = 22.4"] ;
308 -> 310 ;
311 [label="X[4] <= 0.641\nmse = 20.748\nsamples = 112\nvalue = 14.76"] ;
1 -> 311 ;
312 [label="X[10] <= 19.65\nmse = 13.937\nsamples = 60\nvalue = 17.218"] ;
311 -> 312 ;
313 [label="X[6] <= 95.95\nmse = 7.657\nsamples = 22\nvalue = 19.905"] ;
312 -> 313 ;
314 [label="X[6] <= 60.55\nmse = 5.439\nsamples = 21\nvalue = 19.562"] ;
313 -> 314 ;
315 [label="X[10] <= 17.3\nmse = 1.878\nsamples = 5\nvalue = 22.38"] ;
314 -> 315 ;
316 [label="X[9] <= 300.0\nmse = 0.49\nsamples = 2\nvalue = 21.0"] ;
315 -> 316 ;
317 [label="mse = 0.0\nsamples = 1\nvalue = 20.3"] ;
316 -> 317 ;
318 [label="mse = 0.0\nsamples = 1\nvalue = 21.7"] ;
316 -> 318 ;
319 [label="X[0] <= 0.157\nmse = 0.687\nsamples = 3\nvalue = 23.3"] ;
315 -> 319 ;
320 [label="mse = 0.0\nsamples = 1\nvalue = 24.4"] ;
319 -> 320 ;
321 [label="X[10] <= 18.9\nmse = 0.122\nsamples = 2\nvalue = 22.75"] ;
319 -> 321 ;
322 [label="mse = 0.0\nsamples = 1\nvalue = 22.4"] ;
321 -> 322 ;
323 [label="mse = -0.0\nsamples = 1\nvalue = 23.1"] ;
321 -> 323 ;
324 [label="X[5] <= 5.996\nmse = 3.294\nsamples = 16\nvalue = 18.681"] ;
314 -> 324 ;
325 [label="X[5] <= 5.94\nmse = 2.318\nsamples = 14\nvalue = 19.093"] ;
324 -> 325 ;
326 [label="X[12] <= 25.62\nmse = 1.284\nsamples = 11\nvalue = 18.509"] ;
325 -> 326 ;
327 [label="X[11] <= 396.335\nmse = 0.545\nsamples = 10\nvalue = 18.79"] ;
326 -> 327 ;
328 [label="X[6] <= 88.4\nmse = 0.331\nsamples = 7\nvalue = 18.429"] ;
327 -> 328 ;
329 [label="X[11] <= 389.915\nmse = 0.157\nsamples = 4\nvalue = 18.025"] ;
328 -> 329 ;
330 [label="X[2] <= 7.935\nmse = 0.01\nsamples = 2\nvalue = 18.4"] ;
329 -> 330 ;
331 [label="mse = 0.0\nsamples = 1\nvalue = 18.5"] ;
330 -> 331 ;
332 [label="mse = 0.0\nsamples = 1\nvalue = 18.3"] ;
330 -> 332 ;
333 [label="X[5] <= 5.741\nmse = 0.023\nsamples = 2\nvalue = 17.65"] ;
329 -> 333 ;
334 [label="mse = 0.0\nsamples = 1\nvalue = 17.5"] ;
333 -> 334 ;
335 [label="mse = 0.0\nsamples = 1\nvalue = 17.8"] ;
333 -> 335 ;
336 [label="X[11] <= 395.095\nmse = 0.056\nsamples = 3\nvalue = 18.967"] ;
328 -> 336 ;
337 [label="mse = -0.0\nsamples = 2\nvalue = 18.8"] ;
336 -> 337 ;
338 [label="mse = 0.0\nsamples = 1\nvalue = 19.3"] ;
336 -> 338 ;
339 [label="X[2] <= 8.3\nmse = 0.029\nsamples = 3\nvalue = 19.633"] ;
327 -> 339 ;
340 [label="mse = 0.0\nsamples = 1\nvalue = 19.4"] ;
339 -> 340 ;
341 [label="X[4] <= 0.565\nmse = 0.002\nsamples = 2\nvalue = 19.75"] ;
339 -> 341 ;
342 [label="mse = 0.0\nsamples = 1\nvalue = 19.8"] ;
341 -> 342 ;
343 [label="mse = 0.0\nsamples = 1\nvalue = 19.7"] ;
341 -> 343 ;
344 [label="mse = 0.0\nsamples = 1\nvalue = 15.7"] ;
326 -> 344 ;
345 [label="X[4] <= 0.565\nmse = 0.276\nsamples = 3\nvalue = 21.233"] ;
325 -> 345 ;
346 [label="X[7] <= 3.383\nmse = 0.01\nsamples = 2\nvalue = 21.6"] ;
345 -> 346 ;
347 [label="mse = 0.0\nsamples = 1\nvalue = 21.5"] ;
346 -> 347 ;
348 [label="mse = -0.0\nsamples = 1\nvalue = 21.7"] ;
346 -> 348 ;
349 [label="mse = -0.0\nsamples = 1\nvalue = 20.5"] ;
345 -> 349 ;
350 [label="X[4] <= 0.486\nmse = 0.64\nsamples = 2\nvalue = 15.8"] ;
324 -> 350 ;
351 [label="mse = 0.0\nsamples = 1\nvalue = 16.6"] ;
350 -> 351 ;
352 [label="mse = 0.0\nsamples = 1\nvalue = 15.0"] ;
350 -> 352 ;
353 [label="mse = -0.0\nsamples = 1\nvalue = 27.1"] ;
313 -> 353 ;
354 [label="X[5] <= 6.843\nmse = 10.978\nsamples = 38\nvalue = 15.663"] ;
312 -> 354 ;
355 [label="X[11] <= 364.455\nmse = 7.385\nsamples = 37\nvalue = 15.343"] ;
354 -> 355 ;
356 [label="X[0] <= 0.512\nmse = 7.704\nsamples = 19\nvalue = 14.047"] ;
355 -> 356 ;
357 [label="mse = 0.0\nsamples = 1\nvalue = 7.0"] ;
356 -> 357 ;
358 [label="X[6] <= 97.65\nmse = 5.219\nsamples = 18\nvalue = 14.439"] ;
356 -> 358 ;
359 [label="X[5] <= 5.976\nmse = 3.909\nsamples = 13\nvalue = 13.515"] ;
358 -> 359 ;
360 [label="X[7] <= 2.265\nmse = 1.48\nsamples = 7\nvalue = 12.5"] ;
359 -> 360 ;
361 [label="X[7] <= 2.031\nmse = 0.62\nsamples = 3\nvalue = 11.3"] ;
360 -> 361 ;
362 [label="mse = 0.0\nsamples = 1\nvalue = 10.2"] ;
361 -> 362 ;
363 [label="X[6] <= 83.95\nmse = 0.023\nsamples = 2\nvalue = 11.85"] ;
361 -> 363 ;
364 [label="mse = 0.0\nsamples = 1\nvalue = 11.7"] ;
363 -> 364 ;
365 [label="mse = 0.0\nsamples = 1\nvalue = 12.0"] ;
363 -> 365 ;
366 [label="X[12] <= 20.37\nmse = 0.235\nsamples = 4\nvalue = 13.4"] ;
360 -> 366 ;
367 [label="X[6] <= 90.55\nmse = 0.002\nsamples = 2\nvalue = 13.85"] ;
366 -> 367 ;
368 [label="mse = 0.0\nsamples = 1\nvalue = 13.9"] ;
367 -> 368 ;
369 [label="mse = -0.0\nsamples = 1\nvalue = 13.8"] ;
367 -> 369 ;
370 [label="X[11] <= 296.385\nmse = 0.062\nsamples = 2\nvalue = 12.95"] ;
366 -> 370 ;
371 [label="mse = 0.0\nsamples = 1\nvalue = 13.2"] ;
370 -> 371 ;
372 [label="mse = 0.0\nsamples = 1\nvalue = 12.7"] ;
370 -> 372 ;
373 [label="X[11] <= 318.835\nmse = 4.137\nsamples = 6\nvalue = 14.7"] ;
359 -> 373 ;
374 [label="X[12] <= 20.015\nmse = 0.318\nsamples = 5\nvalue = 13.82"] ;
373 -> 374 ;
375 [label="X[10] <= 20.6\nmse = 0.123\nsamples = 2\nvalue = 14.45"] ;
374 -> 375 ;
376 [label="mse = 0.0\nsamples = 1\nvalue = 14.1"] ;
375 -> 376 ;
377 [label="mse = 0.0\nsamples = 1\nvalue = 14.8"] ;
375 -> 377 ;
378 [label="X[7] <= 2.983\nmse = 0.007\nsamples = 3\nvalue = 13.4"] ;
374 -> 378 ;
379 [label="X[12] <= 23.695\nmse = 0.002\nsamples = 2\nvalue = 13.35"] ;
378 -> 379 ;
380 [label="mse = 0.0\nsamples = 1\nvalue = 13.4"] ;
379 -> 380 ;
381 [label="mse = -0.0\nsamples = 1\nvalue = 13.3"] ;
379 -> 381 ;
382 [label="mse = 0.0\nsamples = 1\nvalue = 13.5"] ;
378 -> 382 ;
383 [label="mse = -0.0\nsamples = 1\nvalue = 19.1"] ;
373 -> 383 ;
384 [label="X[12] <= 20.65\nmse = 0.642\nsamples = 5\nvalue = 16.84"] ;
358 -> 384 ;
385 [label="X[5] <= 5.456\nmse = 0.123\nsamples = 2\nvalue = 15.95"] ;
384 -> 385 ;
386 [label="mse = 0.0\nsamples = 1\nvalue = 16.3"] ;
385 -> 386 ;
387 [label="mse = 0.0\nsamples = 1\nvalue = 15.6"] ;
385 -> 387 ;
388 [label="X[12] <= 30.385\nmse = 0.109\nsamples = 3\nvalue = 17.433"] ;
384 -> 388 ;
389 [label="mse = 0.0\nsamples = 2\nvalue = 17.2"] ;
388 -> 389 ;
390 [label="mse = 0.0\nsamples = 1\nvalue = 17.9"] ;
388 -> 390 ;
391 [label="X[12] <= 18.7\nmse = 3.405\nsamples = 18\nvalue = 16.711"] ;
355 -> 391 ;
392 [label="X[6] <= 88.35\nmse = 2.367\nsamples = 14\nvalue = 17.364"] ;
391 -> 392 ;
393 [label="X[10] <= 20.6\nmse = 0.996\nsamples = 3\nvalue = 18.833"] ;
392 -> 393 ;
394 [label="X[6] <= 77.5\nmse = 0.16\nsamples = 2\nvalue = 19.5"] ;
393 -> 394 ;
395 [label="mse = 0.0\nsamples = 1\nvalue = 19.1"] ;
394 -> 395 ;
396 [label="mse = -0.0\nsamples = 1\nvalue = 19.9"] ;
394 -> 396 ;
397 [label="mse = 0.0\nsamples = 1\nvalue = 17.5"] ;
393 -> 397 ;
398 [label="X[9] <= 551.5\nmse = 1.991\nsamples = 11\nvalue = 16.964"] ;
392 -> 398 ;
399 [label="X[0] <= 0.196\nmse = 1.341\nsamples = 8\nvalue = 17.513"] ;
398 -> 399 ;
400 [label="mse = 0.0\nsamples = 1\nvalue = 19.5"] ;
399 -> 400 ;
401 [label="X[4] <= 0.581\nmse = 0.888\nsamples = 7\nvalue = 17.229"] ;
399 -> 401 ;
402 [label="mse = 0.0\nsamples = 1\nvalue = 15.6"] ;
401 -> 402 ;
403 [label="X[5] <= 5.757\nmse = 0.52\nsamples = 6\nvalue = 17.5"] ;
401 -> 403 ;
404 [label="mse = 0.0\nsamples = 1\nvalue = 16.2"] ;
403 -> 404 ;
405 [label="X[7] <= 2.039\nmse = 0.218\nsamples = 5\nvalue = 17.76"] ;
403 -> 405 ;
406 [label="X[7] <= 1.759\nmse = 0.082\nsamples = 3\nvalue = 17.433"] ;
405 -> 406 ;
407 [label="mse = 0.0\nsamples = 1\nvalue = 17.8"] ;
406 -> 407 ;
408 [label="X[5] <= 6.198\nmse = 0.022\nsamples = 2\nvalue = 17.25"] ;
406 -> 408 ;
409 [label="mse = 0.0\nsamples = 1\nvalue = 17.4"] ;
408 -> 409 ;
410 [label="mse = 0.0\nsamples = 1\nvalue = 17.1"] ;
408 -> 410 ;
411 [label="X[12] <= 15.995\nmse = 0.022\nsamples = 2\nvalue = 18.25"] ;
405 -> 411 ;
412 [label="mse = 0.0\nsamples = 1\nvalue = 18.4"] ;
411 -> 412 ;
413 [label="mse = 0.0\nsamples = 1\nvalue = 18.1"] ;
411 -> 413 ;
414 [label="X[11] <= 395.65\nmse = 0.78\nsamples = 3\nvalue = 15.5"] ;
398 -> 414 ;
415 [label="X[10] <= 20.15\nmse = 0.09\nsamples = 2\nvalue = 14.9"] ;
414 -> 415 ;
416 [label="mse = 0.0\nsamples = 1\nvalue = 15.2"] ;
415 -> 416 ;
417 [label="mse = 0.0\nsamples = 1\nvalue = 14.6"] ;
415 -> 417 ;
418 [label="mse = -0.0\nsamples = 1\nvalue = 16.7"] ;
414 -> 418 ;
419 [label="X[11] <= 385.555\nmse = 0.322\nsamples = 4\nvalue = 14.425"] ;
391 -> 419 ;
420 [label="mse = 0.0\nsamples = 1\nvalue = 13.6"] ;
419 -> 420 ;
421 [label="X[12] <= 19.3\nmse = 0.127\nsamples = 3\nvalue = 14.7"] ;
419 -> 421 ;
422 [label="mse = 0.0\nsamples = 1\nvalue = 15.2"] ;
421 -> 422 ;
423 [label="X[9] <= 372.0\nmse = 0.003\nsamples = 2\nvalue = 14.45"] ;
421 -> 423 ;
424 [label="mse = 0.0\nsamples = 1\nvalue = 14.5"] ;
423 -> 424 ;
425 [label="mse = 0.0\nsamples = 1\nvalue = 14.4"] ;
423 -> 425 ;
426 [label="mse = 0.0\nsamples = 1\nvalue = 27.5"] ;
354 -> 426 ;
427 [label="X[12] <= 19.72\nmse = 13.585\nsamples = 52\nvalue = 11.923"] ;
311 -> 427 ;
428 [label="X[0] <= 11.94\nmse = 6.525\nsamples = 22\nvalue = 14.855"] ;
427 -> 428 ;
429 [label="X[12] <= 14.86\nmse = 4.332\nsamples = 19\nvalue = 15.505"] ;
428 -> 429 ;
430 [label="mse = 0.0\nsamples = 1\nvalue = 20.0"] ;
429 -> 430 ;
431 [label="X[4] <= 0.729\nmse = 3.388\nsamples = 18\nvalue = 15.256"] ;
429 -> 431 ;
432 [label="X[0] <= 7.274\nmse = 0.878\nsamples = 9\nvalue = 14.144"] ;
431 -> 432 ;
433 [label="X[11] <= 337.635\nmse = 0.59\nsamples = 5\nvalue = 14.78"] ;
432 -> 433 ;
434 [label="X[5] <= 6.48\nmse = 0.007\nsamples = 3\nvalue = 14.2"] ;
433 -> 434 ;
435 [label="X[7] <= 2.095\nmse = 0.003\nsamples = 2\nvalue = 14.25"] ;
434 -> 435 ;
436 [label="mse = 0.0\nsamples = 1\nvalue = 14.2"] ;
435 -> 436 ;
437 [label="mse = 0.0\nsamples = 1\nvalue = 14.3"] ;
435 -> 437 ;
438 [label="mse = 0.0\nsamples = 1\nvalue = 14.1"] ;
434 -> 438 ;
439 [label="X[12] <= 17.5\nmse = 0.203\nsamples = 2\nvalue = 15.65"] ;
433 -> 439 ;
440 [label="mse = 0.0\nsamples = 1\nvalue = 16.1"] ;
439 -> 440 ;
441 [label="mse = -0.0\nsamples = 1\nvalue = 15.2"] ;
439 -> 441 ;
442 [label="X[5] <= 6.305\nmse = 0.102\nsamples = 4\nvalue = 13.35"] ;
432 -> 442 ;
443 [label="X[4] <= 0.703\nmse = 0.023\nsamples = 2\nvalue = 13.65"] ;
442 -> 443 ;
444 [label="mse = 0.0\nsamples = 1\nvalue = 13.8"] ;
443 -> 444 ;
445 [label="mse = 0.0\nsamples = 1\nvalue = 13.5"] ;
443 -> 445 ;
446 [label="X[6] <= 98.55\nmse = 0.003\nsamples = 2\nvalue = 13.05"] ;
442 -> 446 ;
447 [label="mse = 0.0\nsamples = 1\nvalue = 13.0"] ;
446 -> 447 ;
448 [label="mse = -0.0\nsamples = 1\nvalue = 13.1"] ;
446 -> 448 ;
449 [label="X[6] <= 96.8\nmse = 3.429\nsamples = 9\nvalue = 16.367"] ;
431 -> 449 ;
450 [label="X[5] <= 5.712\nmse = 1.109\nsamples = 3\nvalue = 14.533"] ;
449 -> 450 ;
451 [label="mse = 0.0\nsamples = 1\nvalue = 13.1"] ;
450 -> 451 ;
452 [label="X[11] <= 203.01\nmse = 0.123\nsamples = 2\nvalue = 15.25"] ;
450 -> 452 ;
453 [label="mse = 0.0\nsamples = 1\nvalue = 15.6"] ;
452 -> 453 ;
454 [label="mse = 0.0\nsamples = 1\nvalue = 14.9"] ;
452 -> 454 ;
455 [label="X[12] <= 16.62\nmse = 2.068\nsamples = 6\nvalue = 17.283"] ;
449 -> 455 ;
456 [label="X[2] <= 18.84\nmse = 0.25\nsamples = 2\nvalue = 18.9"] ;
455 -> 456 ;
457 [label="mse = 0.0\nsamples = 1\nvalue = 18.4"] ;
456 -> 457 ;
458 [label="mse = -0.0\nsamples = 1\nvalue = 19.4"] ;
456 -> 458 ;
459 [label="X[6] <= 98.7\nmse = 1.017\nsamples = 4\nvalue = 16.475"] ;
455 -> 459 ;
460 [label="X[7] <= 2.094\nmse = 0.122\nsamples = 2\nvalue = 17.45"] ;
459 -> 460 ;
461 [label="mse = 0.0\nsamples = 1\nvalue = 17.1"] ;
460 -> 461 ;
462 [label="mse = -0.0\nsamples = 1\nvalue = 17.8"] ;
460 -> 462 ;
463 [label="X[0] <= 6.061\nmse = 0.01\nsamples = 2\nvalue = 15.5"] ;
459 -> 463 ;
464 [label="mse = 0.0\nsamples = 1\nvalue = 15.6"] ;
463 -> 464 ;
465 [label="mse = -0.0\nsamples = 1\nvalue = 15.4"] ;
463 -> 465 ;
466 [label="X[12] <= 16.61\nmse = 0.749\nsamples = 3\nvalue = 10.733"] ;
428 -> 466 ;
467 [label="X[0] <= 25.788\nmse = 0.16\nsamples = 2\nvalue = 11.3"] ;
466 -> 467 ;
468 [label="mse = 0.0\nsamples = 1\nvalue = 11.7"] ;
467 -> 468 ;
469 [label="mse = -0.0\nsamples = 1\nvalue = 10.9"] ;
467 -> 469 ;
470 [label="mse = 0.0\nsamples = 1\nvalue = 9.6"] ;
466 -> 470 ;
471 [label="X[7] <= 1.406\nmse = 7.839\nsamples = 30\nvalue = 9.773"] ;
427 -> 471 ;
472 [label="X[12] <= 22.51\nmse = 1.558\nsamples = 7\nvalue = 12.586"] ;
471 -> 472 ;
473 [label="mse = 0.0\nsamples = 1\nvalue = 10.2"] ;
472 -> 473 ;
474 [label="X[5] <= 4.905\nmse = 0.711\nsamples = 6\nvalue = 12.983"] ;
472 -> 474 ;
475 [label="X[2] <= 18.84\nmse = 0.002\nsamples = 2\nvalue = 11.85"] ;
474 -> 475 ;
476 [label="mse = 0.0\nsamples = 1\nvalue = 11.9"] ;
475 -> 476 ;
477 [label="mse = -0.0\nsamples = 1\nvalue = 11.8"] ;
475 -> 477 ;
478 [label="X[0] <= 19.468\nmse = 0.102\nsamples = 4\nvalue = 13.55"] ;
474 -> 478 ;
479 [label="X[0] <= 7.215\nmse = 0.047\nsamples = 3\nvalue = 13.7"] ;
478 -> 479 ;
480 [label="mse = 0.0\nsamples = 1\nvalue = 13.4"] ;
479 -> 480 ;
481 [label="X[12] <= 29.005\nmse = 0.002\nsamples = 2\nvalue = 13.85"] ;
479 -> 481 ;
482 [label="mse = 0.0\nsamples = 1\nvalue = 13.9"] ;
481 -> 482 ;
483 [label="mse = -0.0\nsamples = 1\nvalue = 13.8"] ;
481 -> 483 ;
484 [label="mse = -0.0\nsamples = 1\nvalue = 13.1"] ;
478 -> 484 ;
485 [label="X[0] <= 9.654\nmse = 6.61\nsamples = 23\nvalue = 8.917"] ;
471 -> 485 ;
486 [label="X[4] <= 0.697\nmse = 4.356\nsamples = 7\nvalue = 11.614"] ;
485 -> 486 ;
487 [label="X[0] <= 8.505\nmse = 0.25\nsamples = 2\nvalue = 9.0"] ;
486 -> 487 ;
488 [label="mse = 0.0\nsamples = 1\nvalue = 8.5"] ;
487 -> 488 ;
489 [label="mse = 0.0\nsamples = 1\nvalue = 9.5"] ;
487 -> 489 ;
490 [label="X[10] <= 17.45\nmse = 2.17\nsamples = 5\nvalue = 12.66"] ;
486 -> 490 ;
491 [label="mse = 0.0\nsamples = 1\nvalue = 15.4"] ;
490 -> 491 ;
492 [label="X[4] <= 0.72\nmse = 0.367\nsamples = 4\nvalue = 11.975"] ;
490 -> 492 ;
493 [label="X[7] <= 1.557\nmse = 0.187\nsamples = 3\nvalue = 11.7"] ;
492 -> 493 ;
494 [label="mse = 0.0\nsamples = 1\nvalue = 12.3"] ;
493 -> 494 ;
495 [label="X[7] <= 1.654\nmse = 0.01\nsamples = 2\nvalue = 11.4"] ;
493 -> 495 ;
496 [label="mse = 0.0\nsamples = 1\nvalue = 11.3"] ;
495 -> 496 ;
497 [label="mse = 0.0\nsamples = 1\nvalue = 11.5"] ;
495 -> 497 ;
498 [label="mse = 0.0\nsamples = 1\nvalue = 12.8"] ;
492 -> 498 ;
499 [label="X[7] <= 1.509\nmse = 3.022\nsamples = 16\nvalue = 7.738"] ;
485 -> 499 ;
500 [label="X[6] <= 99.05\nmse = 0.867\nsamples = 4\nvalue = 5.875"] ;
499 -> 500 ;
501 [label="X[5] <= 5.565\nmse = 0.203\nsamples = 2\nvalue = 6.75"] ;
500 -> 501 ;
502 [label="mse = 0.0\nsamples = 1\nvalue = 7.2"] ;
501 -> 502 ;
503 [label="mse = 0.0\nsamples = 1\nvalue = 6.3"] ;
501 -> 503 ;
504 [label="mse = 0.0\nsamples = 2\nvalue = 5.0"] ;
500 -> 504 ;
505 [label="X[12] <= 25.735\nmse = 2.199\nsamples = 12\nvalue = 8.358"] ;
499 -> 505 ;
506 [label="X[12] <= 20.47\nmse = 1.771\nsamples = 6\nvalue = 9.283"] ;
505 -> 506 ;
507 [label="mse = 0.0\nsamples = 1\nvalue = 7.2"] ;
506 -> 507 ;
508 [label="X[11] <= 128.485\nmse = 1.084\nsamples = 5\nvalue = 9.7"] ;
506 -> 508 ;
509 [label="X[11] <= 12.065\nmse = 0.063\nsamples = 2\nvalue = 8.55"] ;
508 -> 509 ;
510 [label="mse = 0.0\nsamples = 1\nvalue = 8.3"] ;
509 -> 510 ;
511 [label="mse = 0.0\nsamples = 1\nvalue = 8.8"] ;
509 -> 511 ;
512 [label="X[0] <= 12.19\nmse = 0.296\nsamples = 3\nvalue = 10.467"] ;
508 -> 512 ;
513 [label="mse = 0.0\nsamples = 1\nvalue = 9.7"] ;
512 -> 513 ;
514 [label="X[7] <= 1.707\nmse = 0.002\nsamples = 2\nvalue = 10.85"] ;
512 -> 514 ;
515 [label="mse = 0.0\nsamples = 1\nvalue = 10.9"] ;
514 -> 515 ;
516 [label="mse = -0.0\nsamples = 1\nvalue = 10.8"] ;
514 -> 516 ;
517 [label="X[6] <= 95.4\nmse = 0.916\nsamples = 6\nvalue = 7.433"] ;
505 -> 517 ;
518 [label="X[6] <= 88.7\nmse = 0.252\nsamples = 4\nvalue = 7.95"] ;
517 -> 518 ;
519 [label="X[7] <= 1.714\nmse = 0.003\nsamples = 2\nvalue = 8.45"] ;
518 -> 519 ;
520 [label="mse = 0.0\nsamples = 1\nvalue = 8.5"] ;
519 -> 520 ;
521 [label="mse = 0.0\nsamples = 1\nvalue = 8.4"] ;
519 -> 521 ;
522 [label="X[5] <= 5.891\nmse = 0.002\nsamples = 2\nvalue = 7.45"] ;
518 -> 522 ;
523 [label="mse = 0.0\nsamples = 1\nvalue = 7.4"] ;
522 -> 523 ;
524 [label="mse = 0.0\nsamples = 1\nvalue = 7.5"] ;
522 -> 524 ;
525 [label="X[11] <= 212.075\nmse = 0.64\nsamples = 2\nvalue = 6.4"] ;
517 -> 525 ;
526 [label="mse = 0.0\nsamples = 1\nvalue = 7.2"] ;
525 -> 526 ;
527 [label="mse = -0.0\nsamples = 1\nvalue = 5.6"] ;
525 -> 527 ;
528 [label="X[5] <= 7.437\nmse = 82.281\nsamples = 59\nvalue = 37.637"] ;
0 -> 528 [labeldistance=2.5, labelangle=-45, headlabel="False"] ;
529 [label="X[12] <= 12.55\nmse = 49.122\nsamples = 35\nvalue = 32.706"] ;
528 -> 529 ;
530 [label="X[7] <= 1.886\nmse = 18.494\nsamples = 32\nvalue = 34.422"] ;
529 -> 530 ;
531 [label="X[10] <= 17.45\nmse = 18.923\nsamples = 2\nvalue = 45.65"] ;
530 -> 531 ;
532 [label="mse = 0.0\nsamples = 1\nvalue = 41.3"] ;
531 -> 532 ;
533 [label="mse = 0.0\nsamples = 1\nvalue = 50.0"] ;
531 -> 533 ;
534 [label="X[8] <= 7.5\nmse = 9.5\nsamples = 30\nvalue = 33.673"] ;
530 -> 534 ;
535 [label="X[6] <= 11.95\nmse = 4.743\nsamples = 26\nvalue = 34.508"] ;
534 -> 535 ;
536 [label="X[0] <= 0.069\nmse = 0.09\nsamples = 2\nvalue = 29.3"] ;
535 -> 536 ;
537 [label="mse = 0.0\nsamples = 1\nvalue = 29.0"] ;
536 -> 537 ;
538 [label="mse = 0.0\nsamples = 1\nvalue = 29.6"] ;
536 -> 538 ;
539 [label="X[8] <= 2.5\nmse = 2.682\nsamples = 24\nvalue = 34.942"] ;
535 -> 539 ;
540 [label="X[11] <= 393.775\nmse = 0.849\nsamples = 6\nvalue = 33.45"] ;
539 -> 540 ;
541 [label="X[12] <= 5.325\nmse = 0.002\nsamples = 2\nvalue = 34.65"] ;
540 -> 541 ;
542 [label="mse = 0.0\nsamples = 1\nvalue = 34.7"] ;
541 -> 542 ;
543 [label="mse = -0.0\nsamples = 1\nvalue = 34.6"] ;
541 -> 543 ;
544 [label="X[11] <= 395.82\nmse = 0.193\nsamples = 4\nvalue = 32.85"] ;
540 -> 544 ;
545 [label="X[2] <= 2.245\nmse = 0.062\nsamples = 2\nvalue = 32.45"] ;
544 -> 545 ;
546 [label="mse = 0.0\nsamples = 1\nvalue = 32.7"] ;
545 -> 546 ;
547 [label="mse = -0.0\nsamples = 1\nvalue = 32.2"] ;
545 -> 547 ;
548 [label="X[1] <= 40.0\nmse = 0.003\nsamples = 2\nvalue = 33.25"] ;
544 -> 548 ;
549 [label="mse = 0.0\nsamples = 1\nvalue = 33.2"] ;
548 -> 549 ;
550 [label="mse = 0.0\nsamples = 1\nvalue = 33.3"] ;
548 -> 550 ;
551 [label="X[9] <= 204.5\nmse = 2.305\nsamples = 18\nvalue = 35.439"] ;
539 -> 551 ;
552 [label="X[5] <= 7.068\nmse = 0.123\nsamples = 2\nvalue = 37.55"] ;
551 -> 552 ;
553 [label="mse = 0.0\nsamples = 1\nvalue = 37.2"] ;
552 -> 553 ;
554 [label="mse = 0.0\nsamples = 1\nvalue = 37.9"] ;
552 -> 554 ;
555 [label="X[0] <= 0.033\nmse = 1.951\nsamples = 16\nvalue = 35.175"] ;
551 -> 555 ;
556 [label="X[12] <= 4.505\nmse = 1.062\nsamples = 4\nvalue = 34.15"] ;
555 -> 556 ;
557 [label="X[0] <= 0.025\nmse = 0.062\nsamples = 2\nvalue = 33.15"] ;
556 -> 557 ;
558 [label="mse = 0.0\nsamples = 1\nvalue = 32.9"] ;
557 -> 558 ;
559 [label="mse = 0.0\nsamples = 1\nvalue = 33.4"] ;
557 -> 559 ;
560 [label="X[5] <= 7.112\nmse = 0.062\nsamples = 2\nvalue = 35.15"] ;
556 -> 560 ;
561 [label="mse = 0.0\nsamples = 1\nvalue = 34.9"] ;
560 -> 561 ;
562 [label="mse = 0.0\nsamples = 1\nvalue = 35.4"] ;
560 -> 562 ;
563 [label="X[5] <= 7.252\nmse = 1.78\nsamples = 12\nvalue = 35.517"] ;
555 -> 563 ;
564 [label="X[12] <= 8.845\nmse = 1.06\nsamples = 9\nvalue = 35.956"] ;
563 -> 564 ;
565 [label="X[0] <= 0.046\nmse = 0.539\nsamples = 8\nvalue = 36.225"] ;
564 -> 565 ;
566 [label="X[10] <= 16.6\nmse = 0.063\nsamples = 2\nvalue = 35.15"] ;
565 -> 566 ;
567 [label="mse = 0.0\nsamples = 1\nvalue = 35.4"] ;
566 -> 567 ;
568 [label="mse = 0.0\nsamples = 1\nvalue = 34.9"] ;
566 -> 568 ;
569 [label="X[10] <= 18.95\nmse = 0.185\nsamples = 6\nvalue = 36.583"] ;
565 -> 569 ;
570 [label="X[6] <= 23.9\nmse = 0.098\nsamples = 5\nvalue = 36.44"] ;
569 -> 570 ;
571 [label="mse = 0.0\nsamples = 1\nvalue = 37.0"] ;
570 -> 571 ;
572 [label="X[11] <= 392.085\nmse = 0.025\nsamples = 4\nvalue = 36.3"] ;
570 -> 572 ;
573 [label="X[1] <= 32.5\nmse = 0.002\nsamples = 2\nvalue = 36.45"] ;
572 -> 573 ;
574 [label="mse = 0.0\nsamples = 1\nvalue = 36.5"] ;
573 -> 574 ;
575 [label="mse = -0.0\nsamples = 1\nvalue = 36.4"] ;
573 -> 575 ;
576 [label="X[4] <= 0.465\nmse = 0.002\nsamples = 2\nvalue = 36.15"] ;
572 -> 576 ;
577 [label="mse = 0.0\nsamples = 1\nvalue = 36.2"] ;
576 -> 577 ;
578 [label="mse = -0.0\nsamples = 1\nvalue = 36.1"] ;
576 -> 578 ;
579 [label="mse = -0.0\nsamples = 1\nvalue = 37.3"] ;
569 -> 579 ;
580 [label="mse = -0.0\nsamples = 1\nvalue = 33.8"] ;
564 -> 580 ;
581 [label="X[9] <= 259.0\nmse = 1.627\nsamples = 3\nvalue = 34.2"] ;
563 -> 581 ;
582 [label="X[4] <= 0.459\nmse = 0.01\nsamples = 2\nvalue = 33.3"] ;
581 -> 582 ;
583 [label="mse = 0.0\nsamples = 1\nvalue = 33.2"] ;
582 -> 583 ;
584 [label="mse = 0.0\nsamples = 1\nvalue = 33.4"] ;
582 -> 584 ;
585 [label="mse = 0.0\nsamples = 1\nvalue = 36.0"] ;
581 -> 585 ;
586 [label="X[11] <= 390.885\nmse = 6.483\nsamples = 4\nvalue = 28.25"] ;
534 -> 586 ;
587 [label="X[10] <= 18.8\nmse = 0.723\nsamples = 2\nvalue = 30.65"] ;
586 -> 587 ;
588 [label="mse = 0.0\nsamples = 1\nvalue = 31.5"] ;
587 -> 588 ;
589 [label="mse = 0.0\nsamples = 1\nvalue = 29.8"] ;
587 -> 589 ;
590 [label="X[7] <= 3.136\nmse = 0.723\nsamples = 2\nvalue = 25.85"] ;
586 -> 590 ;
591 [label="mse = 0.0\nsamples = 1\nvalue = 26.7"] ;
590 -> 591 ;
592 [label="mse = -0.0\nsamples = 1\nvalue = 25.0"] ;
590 -> 592 ;
593 [label="X[5] <= 7.141\nmse = 9.307\nsamples = 3\nvalue = 14.4"] ;
529 -> 593 ;
594 [label="mse = 0.0\nsamples = 1\nvalue = 10.4"] ;
593 -> 594 ;
595 [label="X[11] <= 386.385\nmse = 1.96\nsamples = 2\nvalue = 16.4"] ;
593 -> 595 ;
596 [label="mse = 0.0\nsamples = 1\nvalue = 17.8"] ;
595 -> 596 ;
597 [label="mse = 0.0\nsamples = 1\nvalue = 15.0"] ;
595 -> 597 ;
598 [label="X[9] <= 534.5\nmse = 43.449\nsamples = 24\nvalue = 44.829"] ;
528 -> 598 ;
599 [label="X[10] <= 17.9\nmse = 21.485\nsamples = 23\nvalue = 45.826"] ;
598 -> 599 ;
600 [label="X[5] <= 7.826\nmse = 14.986\nsamples = 20\nvalue = 46.865"] ;
599 -> 600 ;
601 [label="X[12] <= 2.42\nmse = 8.507\nsamples = 7\nvalue = 44.014"] ;
600 -> 601 ;
602 [label="mse = 0.0\nsamples = 1\nvalue = 50.0"] ;
601 -> 602 ;
603 [label="X[11] <= 395.47\nmse = 2.958\nsamples = 6\nvalue = 43.017"] ;
601 -> 603 ;
604 [label="X[5] <= 7.715\nmse = 1.066\nsamples = 5\nvalue = 43.66"] ;
603 -> 604 ;
605 [label="X[8] <= 2.5\nmse = 0.387\nsamples = 4\nvalue = 43.225"] ;
604 -> 605 ;
606 [label="mse = 0.0\nsamples = 1\nvalue = 42.3"] ;
605 -> 606 ;
607 [label="X[9] <= 254.0\nmse = 0.136\nsamples = 3\nvalue = 43.533"] ;
605 -> 607 ;
608 [label="mse = 0.0\nsamples = 1\nvalue = 44.0"] ;
607 -> 608 ;
609 [label="X[0] <= 0.537\nmse = 0.04\nsamples = 2\nvalue = 43.3"] ;
607 -> 609 ;
610 [label="mse = 0.0\nsamples = 1\nvalue = 43.1"] ;
609 -> 610 ;
611 [label="mse = 0.0\nsamples = 1\nvalue = 43.5"] ;
609 -> 611 ;
612 [label="mse = -0.0\nsamples = 1\nvalue = 45.4"] ;
604 -> 612 ;
613 [label="mse = -0.0\nsamples = 1\nvalue = 39.8"] ;
603 -> 613 ;
614 [label="X[8] <= 6.5\nmse = 11.743\nsamples = 13\nvalue = 48.4"] ;
600 -> 614 ;
615 [label="X[5] <= 7.864\nmse = 0.222\nsamples = 9\nvalue = 49.833"] ;
614 -> 615 ;
616 [label="X[10] <= 16.25\nmse = 0.562\nsamples = 2\nvalue = 49.25"] ;
615 -> 616 ;
617 [label="mse = 0.0\nsamples = 1\nvalue = 48.5"] ;
616 -> 617 ;
618 [label="mse = 0.0\nsamples = 1\nvalue = 50.0"] ;
616 -> 618 ;
619 [label="mse = 0.0\nsamples = 7\nvalue = 50.0"] ;
615 -> 619 ;
620 [label="X[5] <= 8.143\nmse = 22.642\nsamples = 4\nvalue = 45.175"] ;
614 -> 620 ;
621 [label="mse = 0.0\nsamples = 1\nvalue = 37.6"] ;
620 -> 621 ;
622 [label="X[0] <= 0.323\nmse = 4.687\nsamples = 3\nvalue = 47.7"] ;
620 -> 622 ;
623 [label="mse = 0.0\nsamples = 1\nvalue = 44.8"] ;
622 -> 623 ;
624 [label="X[7] <= 3.273\nmse = 0.722\nsamples = 2\nvalue = 49.15"] ;
622 -> 624 ;
625 [label="mse = 0.0\nsamples = 1\nvalue = 50.0"] ;
624 -> 625 ;
626 [label="mse = -0.0\nsamples = 1\nvalue = 48.3"] ;
624 -> 626 ;
627 [label="X[8] <= 5.0\nmse = 9.647\nsamples = 3\nvalue = 38.9"] ;
599 -> 627 ;
628 [label="X[8] <= 2.5\nmse = 3.062\nsamples = 2\nvalue = 36.95"] ;
627 -> 628 ;
629 [label="mse = 0.0\nsamples = 1\nvalue = 38.7"] ;
628 -> 629 ;
630 [label="mse = 0.0\nsamples = 1\nvalue = 35.2"] ;
628 -> 630 ;
631 [label="mse = -0.0\nsamples = 1\nvalue = 42.8"] ;
627 -> 631 ;
632 [label="mse = -0.0\nsamples = 1\nvalue = 21.9"] ;
598 -> 632 ;
}